<?xml version="1.0"?>
<opencv_storage>
<stage9>
  <maxWeakCount>4</maxWeakCount>
  <stageThreshold>-2.8755819797515869e-01</stageThreshold>
  <weakClassifiers>
    <_>
      <internalNodes>
        0 -1 1365 -209224361 -158777205 1073840159 -788299646 -930215840
        -268435450 -939507113 -7640977</internalNodes>
      <leafValues>
        -6.4999997615814209e-01 6.0000002384185791e-01</leafValues></_>
    <_>
      <internalNodes>
        0 -1 10523 -1006385248 -1954449150 14889106 -1251880367
        562102310 -1297366776 1141472203 -1299984805</internalNodes>
      <leafValues>
        -7.1630162000656128e-01 5.4783582687377930e-01</leafValues></_>
    <_>
      <internalNodes>
        0 -1 13968 -917319075 -1044151215 1090605397 -552550126
        -200783718 -361593396 -1056142625 -304969838</internalNodes>
      <leafValues>
        -6.7648077011108398e-01 6.4183890819549561e-01</leafValues></_>
    <_>
      <internalNodes>
        0 -1 32899 811005375 646025699 -2146283117 5296137 -1056861512
        503873546 -2122149224 -1093673369</internalNodes>
      <leafValues>
        -7.5891327857971191e-01 5.8578497171401978e-01</leafValues></_></weakClassifiers></stage9>
</opencv_storage>
